ROW_NAME	TARGET_0	TARGET_1	TARGET_2	TARGET_3	TARGET_4	TARGET_5	TARGET_6	TARGET_7	TARGET_8	TARGET_9	TARGET_10	TARGET_11	TARGET_12	TARGET_13	TARGET_14	TARGET_15	TARGET_16	TARGET_17	TARGET_18	TARGET_19	TARGET_20	TARGET_21	TARGET_22	TARGET_23	TARGET_24	TARGET_25	TARGET_26	TARGET_27	TARGET_28	TARGET_29	TARGET_30	TARGET_31	TARGET_32	TARGET_33	TARGET_34	TARGET_35	TARGET_36	TARGET_37	TARGET_38	TARGET_39	TARGET_40	TARGET_41	TARGET_42	TARGET_43	TARGET_44	TARGET_45	TARGET_46	TARGET_47	TARGET_48	TARGET_49	TARGET_50	TARGET_51	TARGET_52	TARGET_53	TARGET_54	TARGET_55	TARGET_56	TARGET_57	TARGET_58	TARGET_59	TARGET_60	TARGET_61	TARGET_62	TARGET_63	TARGET_64	TARGET_65	TARGET_66	TARGET_67	TARGET_68	TARGET_69	TARGET_70	TARGET_71	TARGET_72	TARGET_73	TARGET_74	TARGET_75	TARGET_76	TARGET_77	TARGET_78	TARGET_79	TARGET_80	TARGET_81	TARGET_82	TARGET_83	TARGET_84	TARGET_85	TARGET_86	TARGET_87	TARGET_88	TARGET_89	TARGET_90	TARGET_91	TARGET_92	TARGET_93	TARGET_94	TARGET_95	TARGET_96	TARGET_97	TARGET_98	TARGET_99	TARGET_100	TARGET_101	TARGET_102	TARGET_103	TARGET_104	TARGET_105	TARGET_106	TARGET_107	TARGET_108	TARGET_109	TARGET_110	TARGET_111	TARGET_112	TARGET_113	TARGET_114	TARGET_115	TARGET_116	TARGET_117	TARGET_118	TARGET_119	TARGET_120	TARGET_121	TARGET_122	TARGET_123	TARGET_124	TARGET_125	TARGET_126	TARGET_127	TARGET_128	TARGET_129	TARGET_130	TARGET_131	TARGET_132	TARGET_133	TARGET_134	TARGET_135	TARGET_136	TARGET_137	TARGET_138	TARGET_139	TARGET_140	TARGET_141	TARGET_142	TARGET_143	TARGET_144	TARGET_145	TARGET_146	TARGET_147	TARGET_148	TARGET_149	TARGET_150	TARGET_151	TARGET_152	TARGET_153	TARGET_154	TARGET_155	TARGET_156	TARGET_157	TARGET_158	TARGET_159	TARGET_160	TARGET_161	TARGET_162	TARGET_163	TARGET_164	TARGET_165	TARGET_166	TARGET_167	TARGET_168	TARGET_169	TARGET_170	TARGET_171	TARGET_172	TARGET_173	TARGET_174	TARGET_175	TARGET_176	TARGET_177	TARGET_178	TARGET_179	TARGET_180	TARGET_181	TARGET_182	TARGET_183	TARGET_184	TARGET_185	TARGET_186	TARGET_187	TARGET_188	TARGET_189	TARGET_190	TARGET_191	TARGET_192	TARGET_193	TARGET_194	TARGET_195	TARGET_196	TARGET_197	TARGET_198	TARGET_199	TARGET_200	TARGET_201	TARGET_202	TARGET_203	TARGET_204	TARGET_205	TARGET_206	TARGET_207	TARGET_208	TARGET_209	TARGET_210	TARGET_211	TARGET_212	TARGET_213	TARGET_214	TARGET_215	TARGET_216	TARGET_217	TARGET_218	TARGET_219	TARGET_220	TARGET_221	TARGET_222	TARGET_223	TARGET_224	TARGET_225	TARGET_226	TARGET_227	TARGET_228	TARGET_229	TARGET_230	TARGET_231	TARGET_232	TARGET_233	TARGET_234	TARGET_235	TARGET_236	TARGET_237	TARGET_238	TARGET_239	TARGET_240	TARGET_241	TARGET_242	TARGET_243	TARGET_244	TARGET_245	TARGET_246	TARGET_247	TARGET_248	TARGET_249	TARGET_250	TARGET_251	TARGET_252	TARGET_253	TARGET_254	TARGET_255	TARGET_256	TARGET_257	TARGET_258	TARGET_259	TARGET_260	TARGET_261	TARGET_262	TARGET_263	TARGET_264	TARGET_265	TARGET_266	TARGET_267	TARGET_268	TARGET_269	TARGET_270	TARGET_271	TARGET_272	TARGET_273	TARGET_274	TARGET_275	TARGET_276	TARGET_277	TARGET_278	TARGET_279	TARGET_280	TARGET_281	TARGET_282	TARGET_283	TARGET_284	TARGET_285	TARGET_286	TARGET_287	TARGET_288	TARGET_289	TARGET_290	TARGET_291	TARGET_292	TARGET_293	TARGET_294	TARGET_295	TARGET_296	TARGET_297	TARGET_298	TARGET_299	TARGET_300	TARGET_301	TARGET_302	TARGET_303	TARGET_304	TARGET_305	TARGET_306	TARGET_307	TARGET_308	TARGET_309	TARGET_310	TARGET_311	TARGET_312	TARGET_313	TARGET_314	TARGET_315	TARGET_316	TARGET_317	TARGET_318	TARGET_319	TARGET_320	TARGET_321	TARGET_322	TARGET_323	TARGET_324	TARGET_325	TARGET_326	TARGET_327	TARGET_328	TARGET_329	TARGET_330	TARGET_331	TARGET_332	TARGET_333	TARGET_334	TARGET_335	TARGET_336	TARGET_337	TARGET_338	TARGET_339	TARGET_340	TARGET_341	TARGET_342	TARGET_343	TARGET_344	TARGET_345	TARGET_346	TARGET_347	TARGET_348	TARGET_349	TARGET_350	TARGET_351	TARGET_352	TARGET_353	TARGET_354	TARGET_355	TARGET_356	TARGET_357	TARGET_358	TARGET_359	TARGET_360	TARGET_361	TARGET_362	TARGET_363	TARGET_364	TARGET_365	TARGET_366	TARGET_367	TARGET_368	TARGET_369	TARGET_370	TARGET_371	TARGET_372	TARGET_373	TARGET_374	TARGET_375	TARGET_376	TARGET_377	TARGET_378	TARGET_379	TARGET_380	TARGET_381	TARGET_382	TARGET_383	TARGET_384	TARGET_385	TARGET_386	TARGET_387	TARGET_388	TARGET_389	TARGET_390	TARGET_391	TARGET_392	TARGET_393	TARGET_394	TARGET_395	TARGET_396	TARGET_397	TARGET_398	TARGET_399	TARGET_400	TARGET_401	TARGET_402	TARGET_403	TARGET_404	TARGET_405	TARGET_406	TARGET_407	TARGET_408	TARGET_409	TARGET_410	TARGET_411	TARGET_412	TARGET_413	TARGET_414	TARGET_415	TARGET_416	TARGET_417	TARGET_418	TARGET_419	TARGET_420	TARGET_421	TARGET_422	TARGET_423	TARGET_424	TARGET_425	TARGET_426	TARGET_427	TARGET_428	TARGET_429	TARGET_430	TARGET_431	TARGET_432	TARGET_433	TARGET_434	TARGET_435	TARGET_436	TARGET_437	TARGET_438	TARGET_439	TARGET_440	TARGET_441	TARGET_442	TARGET_443	TARGET_444	TARGET_445	TARGET_446	TARGET_447	TARGET_448	TARGET_449	TARGET_450	TARGET_451	TARGET_452	TARGET_453	TARGET_454	TARGET_455	TARGET_456	TARGET_457	TARGET_458	TARGET_459	TARGET_460	TARGET_461	TARGET_462	TARGET_463	TARGET_464	TARGET_465	TARGET_466	TARGET_467	TARGET_468	TARGET_469	TARGET_470	TARGET_471	TARGET_472	TARGET_473	TARGET_474	TARGET_475	TARGET_476	TARGET_477	TARGET_478	TARGET_479	TARGET_480	TARGET_481	TARGET_482	TARGET_483	TARGET_484	TARGET_485	TARGET_486	TARGET_487	TARGET_488	TARGET_489	TARGET_490	TARGET_491	TARGET_492	TARGET_493	TARGET_494	TARGET_495	TARGET_496	TARGET_497	TARGET_498	TARGET_499	TARGET_500	TARGET_501	TARGET_502	TARGET_503	TARGET_504	TARGET_505	TARGET_506	TARGET_507	TARGET_508	TARGET_509	TARGET_510	TARGET_511	TARGET_512	TARGET_513	TARGET_514	TARGET_515	TARGET_516	TARGET_517	TARGET_518	TARGET_519	TARGET_520	TARGET_521	TARGET_522	TARGET_523	TARGET_524	TARGET_525	TARGET_526	TARGET_527	TARGET_528	TARGET_529	TARGET_530	TARGET_531	TARGET_532	TARGET_533	TARGET_534	TARGET_535	TARGET_536	TARGET_537	TARGET_538	TARGET_539	TARGET_540	TARGET_541	TARGET_542	TARGET_543	TARGET_544	TARGET_545	TARGET_546	TARGET_547	TARGET_548	TARGET_549	TARGET_550	TARGET_551	TARGET_552	TARGET_553	TARGET_554	TARGET_555	TARGET_556	TARGET_557	TARGET_558	TARGET_559	TARGET_560	TARGET_561	TARGET_562	TARGET_563	TARGET_564	TARGET_565	TARGET_566	TARGET_567	TARGET_568	TARGET_569	TARGET_570	TARGET_571	TARGET_572	TARGET_573	TARGET_574	TARGET_575	TARGET_576	TARGET_577	TARGET_578	TARGET_579	TARGET_580	TARGET_581	TARGET_582	TARGET_583	TARGET_584	TARGET_585	TARGET_586	TARGET_587	TARGET_588	TARGET_589	TARGET_590	TARGET_591	TARGET_592	TARGET_593	TARGET_594	TARGET_595	TARGET_596	TARGET_597	TARGET_598	TARGET_599	TARGET_600	TARGET_601	TARGET_602	TARGET_603	TARGET_604	TARGET_605	TARGET_606	TARGET_607	TARGET_608	TARGET_609	TARGET_610	TARGET_611	TARGET_612	TARGET_613	TARGET_614	TARGET_615	TARGET_616	TARGET_617	TARGET_618	TARGET_619	TARGET_620	TARGET_621	TARGET_622	TARGET_623	TARGET_624	TARGET_625	TARGET_626	TARGET_627	TARGET_628	TARGET_629	TARGET_630	TARGET_631	TARGET_632	TARGET_633	TARGET_634	TARGET_635	TARGET_636	TARGET_637	TARGET_638	TARGET_639	TARGET_640	TARGET_641	TARGET_642	TARGET_643	TARGET_644	TARGET_645	TARGET_646	TARGET_647	TARGET_648	TARGET_649	TARGET_650	TARGET_651	TARGET_652	TARGET_653	TARGET_654	TARGET_655	TARGET_656	TARGET_657	TARGET_658	TARGET_659	TARGET_660	TARGET_661	TARGET_662	TARGET_663	TARGET_664	TARGET_665	TARGET_666	TARGET_667	TARGET_668	TARGET_669	TARGET_670	TARGET_671	TARGET_672	TARGET_673
ROW_0	0.22801074494067861	-0.47158623675541467	-0.41438538570981298	-1.307916529416784	-0.29971882731376126	-0.037586329727782558	-0.35642648330138815	-0.56988633866469784	-1.1357934118507562	0.85375399594254353	0.6956853725804153	0.92064661097429934	-0.72694445755493609	-0.39344031351240771	-0.10738295020146767	1.0231352419718929	-0.54823560460664233	-0.38722597381157642	0.50062093917820805	-0.65197131215537474	0.47956224773169315	-0.58497831992440685	-0.38777517389036426	-0.17214323115802704	0.34692418740370118	-0.49008097803058653	-1.1414955460858875	0.82413278363242737	-0.83642635450323277	-0.43570979788821107	-0.54074254303548241	-0.42432943241406973	0.23226043827191953	-0.29943162471490015	0.26134777186072067	0.15424938578312489	0.46978943195767597	1.6603661385866937	-0.75823643262453932	0.77897341591465197	0.90515871876078613	0.85037704432630523	0.13798855517672853	-0.9454183020835274	0.87196066917327353	-0.17421239232859842	0.45094101307325268	-0.54009730528697564	0.21738479395764485	0.30185972673220657	-0.42627018083989116	0.11470447656987361	0.74354870593974476	0.4601042385291102	-0.27399382729398958	0.23672096222162789	-0.043914331884140893	-0.042471350905882381	0.31706839710246748	0.69249828347408504	-0.74140705157069442	-0.060804585427089726	-0.49934464907864695	-0.97506992148246285	-0.70493661871325564	0.28103899938886212	0.34451079560828407	0.7607252842404516	0.10423533758392324	0.45338839872514664	-0.59025557321191069	-0.61103993701739556	-0.046807824421939259	-1.0084184399292537	-1.5360212499333694	-0.89969635200547349	-0.65823400743280314	-0.54722448488027553	-0.079942801701389427	0.05382714544938632	-0.65496471627983888	-0.2535815469974485	0.16528317836693032	1.138616119277726	-0.81660182452073715	-0.33038386176382017	-0.37419126669722652	-1.6357811536941043	0.72482260297951384	0.44644273672924784	0.46356156985506741	-1.7733054640779475	0.4781918552218361	1.1526081948954683	0.66268217636467552	-0.96963732761059496	0.16769248478183227	-1.4788176176671011	-0.23339861197295947	-0.65360727209307656	1.2053236896176853	0.84973758679748013	0.21273204237052537	0.60064533037076306	0.90436366643021682	-0.35626452600189207	-0.014240872535744005	0.68948878281959258	-0.34445197142749145	0.7079187218776557	-0.41140731840053762	-1.9105789323877849	-0.93944917998695632	0.98144927071023225	-0.34286243512235692	1.2826907156185476	-1.4050335066604847	-0.23059643935647631	0.25135757318931379	-0.21399843666680257	0.81588628707750654	-1.0458843062623251	0.69807736059830372	-1.0194406570464674	-0.033491260093624069	-0.21226568858920664	1.8119727392235363	-0.78281467106485114	-1.4504137193714806	1.0548284173118003	-0.014822822929322958	0.032382168019788472	-1.0200302884935482	1.0320635357770753	0.10837704153843788	-0.31504515598428789	0.57966612132271678	0.37222875221662843	0.88339884188359019	0.61219405739854127	-0.19538830086210132	-0.179382336271556	0.26699653120186317	-0.049218418174908636	0.26447310521049272	0.90154620474179836	-0.1382878781741731	0.80900380257354443	-0.0060303729299444287	-0.21202034280640875	1.2565881134879568	-0.5725812624478428	-0.26233929949131279	0.99237709849458033	-0.10054369809955403	-0.37979990437337457	0.66110762549881896	0.5151087983787106	-0.081292342100815457	-0.27281739245603837	-0.2519362904459353	1.0882673140165329	0.53465215317927484	0.10304013825363623	0.048721487227240359	0.1927116962751701	-0.23991313163269459	0.21130530046901261	-0.99748643621182842	0.36990362098624907	-1.7441446832791827	0.6917280073418931	-0.079264312307226026	-0.3175762506326677	0.016658377736691161	0.77360485174087923	0.3372515314453593	0.20214200215820327	0.31178766293024673	0.59866090126234106	-0.06742684264172974	1.5840099675075809	-0.067621913976829387	-0.067512172979548368	-0.30158085045330735	-0.44449572896346412	0.058786103908663151	0.54656188798715366	0.51269074411348547	0.56819676544361164	-0.36448199990601354	-0.80531939319385371	-0.282113557942752	0.63475253372741847	0.6949973433943325	-0.50697583775986166	0.23682893277188785	-1.153281999598657	0.4657937504091319	-1.6137327796371284	-0.001136153634556497	-1.5852806355233866	0.27439760096525884	-0.62016323473000678	-0.42394957823187679	0.062023010227840944	0.51856162282137253	1.3214648775906226	-0.16182949592530554	0.51867528403808272	-0.55964233856036338	-0.30417617337461961	0.41112062558384471	-0.28883348685023391	-0.74866646671342818	-0.41986110924308367	-0.049633358590264097	0.1487581008869375	-0.99027115221114004	1.4178309335882524	-0.094775183831233581	0.02153179106287972	-0.44879967049096586	0.22981316567152532	-1.0819818895702638	0.71372449725562936	1.0689207106905152	0.62931051999032106	-1.2655795579796429	0.092895943335930556	-0.66877420574640234	1.6043957137358262	0.10168108593757964	0.91950547025341589	-0.94593212545059724	-0.96888530279297691	0.00065783419696938388	-0.25220810585966147	0.095257098835710055	0.57707399490000433	-0.0032445403326815921	-1.3168238099281537	0.89277611080582397	0.13982907852404913	0.18008157852827594	-0.3069855487028269	1.4027335280929645	-0.045783201881503116	-0.88222250929723423	-0.13452336189214795	-0.048083421526300414	-0.36820126498254363	0.2282131328835631	-0.58815923277595195	0.15714357470554724	-1.0696335816033025	-0.66195300875829466	-0.017860754270231448	-0.33563180097712109	1.2388148450346679	-0.067649107212071888	-0.75784062607321523	0.50642515498847784	0.842480697508877	-0.9052482310439024	-0.38206751280035994	0.71495369241140649	0.156717661198222	-0.082520605094582741	-0.89644195518495051	-0.21373747052441081	-0.49704596837654907	0.71385182010272807	0.84318059529357359	-0.11503967444446009	0.74982361506873019	-0.79609366734143083	2.013700717490249	0.87934734425875127	-0.27311463727743901	-1.0405746879380748	-1.2141923349615018	-1.286259116012539	-0.62703606223425834	-0.28264969145567537	0.0075813788565109218	0.6574311232137926	0.53145336383068786	-0.25830872154113299	0.15413823869950222	0.74555738822306905	0.99067469055684432	-1.001672944075483	0.0093855586597912967	-0.37843361313807033	-0.098633082672241898	0.4489790897532458	0.29322351972363581	-0.39732732159811773	-0.098301993895646519	-0.45831600365547098	0.94870798820305702	-0.52478203807733381	-0.19344285457890259	0.78083739589662404	0.34246552672679448	-0.60348224206835577	-0.37247822230612487	-0.029067237326391483	0.36283815248031492	-0.26874444462467045	-0.0048712858465069396	0.83058415032669608	0.96500267892674663	-0.75005555740819319	-0.21013944282206207	-0.10362023369111457	-0.50709420922976056	-0.39114257619719223	0.31151401047737143	-0.22401564934559851	1.6284591582307388	-0.7901202464825402	-0.32967016007231725	-0.65252856270179549	-1.6485822476925762	-0.34427640961050487	-0.60017718384724394	-0.67960738528158637	0.19815593755878586	-0.95685936058385224	0.51995521880103146	-0.34215800437644428	0.53725755963312849	0.014479239571925919	-1.0893571406012126	-0.38189905477975461	0.15991252559921523	-0.17090957883172325	-0.89041512787349031	1.4905499068217594	-0.72911930478621567	-0.91743121812258333	0.57919572088909743	0.33371427722057712	0.062422580195851465	-0.37703521149835501	-0.43251793157160395	0.68350535911597377	0.59530343290876964	0.13849780164611539	-1.0440875780746428	-1.1203361774666696	1.6354456094886283	-0.46544711741502909	-0.68660670184455852	0.2521732999798913	0.13214473044238181	1.0816594039674441	-0.69450955211550203	0.33133876416482355	0.95665414933104986	-0.66034256745364217	0.17797600659032103	-0.59818588915639881	0.40153137562034846	0.5008189399200399	-1.1344475411593766	-1.3320592746559368	-0.512472834867301	-0.024833484765275148	0.12549717241265732	-1.0728950355268567	-1.7670772659582787	0.46102187212278162	1.1081595530478372	-0.020688140943191661	0.23365205330596617	-0.31922936947414055	-0.43115518344206644	0.21142035444233767	-0.54542194516267051	1.1541211630395016	0.19371485987005208	0.063848834719738332	-0.051566336284969101	-0.098751979396608666	-0.50916119625709311	0.26641255561514332	0.059847696453415297	-0.85622062246517994	0.66434157570964758	0.25544250628163762	0.78564019308409661	-1.0822604003236713	-0.20290319218280903	-0.80080281309362666	-0.6313490674574388	1.1519800271194249	0.23189927817482439	0.25838926816768554	1.1862432639484737	-0.80778872768435284	-0.48864785504259894	-0.20552193909753577	1.0919482918967918	1.1692276462229385	-0.027588912316456594	-0.83659751236635194	0.31402953439143383	-0.017665070428427711	0.62795481703454781	0.22329818365971843	-0.21808633831115909	0.11230133510916991	-1.5386788936847446	-0.045986825658930579	0.58216091196106534	-0.37201880134765775	-0.67198963135987488	0.60029978729892253	0.53006678077207581	-0.11472849982936631	0.62797927301561518	-1.1410127433138681	0.3019561532991128	0.17851819094926968	0.19344039255752146	-0.41387295121519729	-0.9503929575889456	-0.25260777776057192	-0.40997731418743649	0.49044344054510586	-0.12048581617856324	0.23839139734381745	-0.60633268611481661	-0.30121368813379806	-0.80888529956492861	0.39817786667101102	0.47279502405711782	-0.23768760898684807	0.66718039271904517	-1.1849110136805932	-0.6758258401188395	0.36634802459993365	0.4083114891910703	1.8642906672198747	-1.1729759036108138	-0.63352912728076527	-0.39942706429632924	0.32560339655564191	-1.2965548413245687	-0.66972131802013946	0.51497720835519123	-0.89753803527871601	-0.33376564275091231	-1.1782408843503156	-1.6561721864492076	-0.1570735907500691	0.74853321107802862	0.10974123030486775	-0.6280626784189608	0.46676679835964002	0.018203507865969849	-0.1743546965784277	0.50931758778596492	0.23286710694483048	0.10728549943743081	-1.1338784320964232	-0.07862784184136859	-0.19234120293749085	-0.20658553925764245	0.46025692397140389	-0.071905003145293703	-0.70541437635023652	-1.0644092082577241	1.0584337181659345	0.18242637872151002	-0.62526581884650201	-0.12179699360069826	-1.6778924751706918	0.43531239396249194	0.97876226475376149	0.34588377813146376	0.00047853764541219988	1.0082062934447924	-0.72670372254821403	-0.21114446449802329	0.0042398603213580485	1.0966959841985386	0.76655002266547656	0.45133104764845755	0.93647916329930214	0.78703196340218085	0.27691392743865162	0.47596093189620242	-0.99076026995772026	-0.69857617121387272	-1.1994084761814738	0.44032173589624407	1.0181636713523965	-0.65978393059012996	-0.95976356565451504	-0.46706927805986548	0.066754845545948779	-0.41617254070963022	-0.13639073065269175	-0.19377387459669052	0.36711606975353017	-1.037300405367384	-1.1614017180607679	0.10891418909125941	0.44686692872473777	1.1882266435785511	-0.50854736044893967	-0.30834029544285513	0.35710662625452544	1.3151106890795188	-0.4484449856709799	-0.43929142168588786	-0.79174351293726453	-0.22023152156744866	-0.76168705814197468	0.0025490467671675969	0.27694579205940179	-0.43422826792097052	1.4437051833563594	-0.69719798705002534	-0.44173052985850558	-0.26450561571996972	0.0088518611901110666	-0.26486024847645179	0.99509066273491209	-0.83199896460951339	-1.001920779688044	0.16550273722678605	0.35545026974811395	-0.35106598728868776	0.081585919025514181	-0.27978229695982249	0.78455459814687845	0.15517537673173698	-0.47092105892597208	1.2642715424666535	1.0649063098888103	-0.99304261114920578	0.79260328712975159	0.25554826665218311	0.29512452387856519	-0.99508278813255202	1.2689032416771457	-0.58406534914982045	-0.43167851701321869	-0.78890969188021109	0.27725457009021937	-0.96678954083979884	-0.20246176686696699	0.44936449552807428	0.43348507680840787	1.8166391423499637	-0.33919904342572604	-0.52602581740988574	-0.11014105078346427	-0.15808864658273167	0.67037177623447397	0.59253020832083336	1.1570872833485812	0.6777226286303798	-0.83443666149934437	-1.3712435583682954	0.18310920228498062	0.19605131508080081	-0.19978349230063	-1.0680356784100984	-0.63025835002428265	0.76216545721679796	0.81987304899082836	-0.30042294784251766	-0.46328947274538101	-0.70310231087108788	1.4957410219724367	-0.54777220140577254	-0.25148948021751011	-0.97747155055847768	-0.45786310465409807	0.19816478494026896	1.0588990744480786	0.37462937742180857	0.73536479561811408	-0.19400786130130018	-0.058715745547452972	-0.30111396565083648	0.52431404978828255	0.69190731498970459	0.58346148712876811	-0.43303147932581559	-0.61683969218386681	-0.76508132416718	0.33235237860659533	-0.64723827149365587	-0.55840001658048311	0.29219449644685747	0.1702953300746661	-1.1018036802971001	-0.97488754852707482	0.99235102374722328	-0.41611752497411558	-0.40407138788656927	-0.0015480955606917625	0.024320793088128848	0.20790515547508176	-0.71712738649430907	0.11019931362788821	-0.35885365454065926	0.5992078201273987	-0.021937733453337927	-1.296936017287736	-0.66954545461111292	0.43172449171057603	-0.64079026560552665	-0.1448040128378151	-0.32005109296435391	-1.0549976500249834	0.16759460217381039	-0.55826007556210799	-0.63368749874160557	0.22214550355724078	-0.44907497045568173	0.28959407768182377	-0.55048786999616739	0.4839711480834909	1.1073178728290398	0.27926299409275396	-0.32332707867493843	-0.47075069222383348	-0.77677386499823009	-0.29146290557975824	-0.29653117662319112	-0.11481020227591857	1.3486388123494397	1.1906537609007961	0.42147267712456166	0.72310119831144437	-0.6373396662418821	-0.56101470065349501	0.11010266878391073	0.44708020673884219	0.71812904614414652	-0.37310350678714194	-0.7974302938308625	-0.34453996277733862	0.070181092529398567	0.30810449605738216	-0.83176266684800049	-0.24203247033919167	-1.1908303059378178	-0.4630426562932502	0.42167242962317708	0.050367279810736396	0.71143912796029651	-0.64462421255620506	0.50535478433070913	-0.54813277242646441	-1.0628029066165097	-0.64299891086651584	-0.33793965285308453	0.011220062163751564	0.13200794859994458	0.11754045349946479	-1.0783655123251417	-0.025190181415901097	-0.46684522301766379	0.47995974105680472	-0.95915562757925454
