ROW_NAME	TARGET_0	TARGET_1	TARGET_2	TARGET_3	TARGET_4	TARGET_5	TARGET_6	TARGET_7	TARGET_8	TARGET_9	TARGET_10	TARGET_11	TARGET_12	TARGET_13	TARGET_14	TARGET_15	TARGET_16	TARGET_17	TARGET_18	TARGET_19	TARGET_20	TARGET_21	TARGET_22	TARGET_23	TARGET_24	TARGET_25	TARGET_26	TARGET_27	TARGET_28	TARGET_29	TARGET_30	TARGET_31	TARGET_32	TARGET_33	TARGET_34	TARGET_35	TARGET_36	TARGET_37	TARGET_38	TARGET_39	TARGET_40	TARGET_41	TARGET_42	TARGET_43	TARGET_44	TARGET_45	TARGET_46	TARGET_47	TARGET_48	TARGET_49	TARGET_50	TARGET_51	TARGET_52	TARGET_53	TARGET_54	TARGET_55	TARGET_56	TARGET_57	TARGET_58	TARGET_59	TARGET_60	TARGET_61	TARGET_62	TARGET_63	TARGET_64	TARGET_65	TARGET_66	TARGET_67	TARGET_68	TARGET_69	TARGET_70	TARGET_71	TARGET_72	TARGET_73	TARGET_74	TARGET_75	TARGET_76	TARGET_77	TARGET_78	TARGET_79	TARGET_80	TARGET_81	TARGET_82	TARGET_83	TARGET_84	TARGET_85	TARGET_86	TARGET_87	TARGET_88	TARGET_89	TARGET_90	TARGET_91	TARGET_92	TARGET_93	TARGET_94	TARGET_95	TARGET_96	TARGET_97	TARGET_98	TARGET_99	TARGET_100	TARGET_101	TARGET_102	TARGET_103	TARGET_104	TARGET_105	TARGET_106	TARGET_107	TARGET_108	TARGET_109	TARGET_110	TARGET_111	TARGET_112	TARGET_113	TARGET_114	TARGET_115	TARGET_116	TARGET_117	TARGET_118	TARGET_119	TARGET_120	TARGET_121	TARGET_122	TARGET_123	TARGET_124	TARGET_125	TARGET_126	TARGET_127	TARGET_128	TARGET_129	TARGET_130	TARGET_131	TARGET_132	TARGET_133	TARGET_134	TARGET_135	TARGET_136	TARGET_137	TARGET_138	TARGET_139	TARGET_140	TARGET_141	TARGET_142	TARGET_143	TARGET_144	TARGET_145	TARGET_146	TARGET_147	TARGET_148	TARGET_149	TARGET_150	TARGET_151	TARGET_152	TARGET_153	TARGET_154	TARGET_155	TARGET_156	TARGET_157	TARGET_158	TARGET_159	TARGET_160	TARGET_161	TARGET_162	TARGET_163	TARGET_164	TARGET_165	TARGET_166	TARGET_167	TARGET_168	TARGET_169	TARGET_170	TARGET_171	TARGET_172	TARGET_173	TARGET_174	TARGET_175	TARGET_176	TARGET_177	TARGET_178	TARGET_179	TARGET_180	TARGET_181	TARGET_182	TARGET_183	TARGET_184	TARGET_185	TARGET_186	TARGET_187	TARGET_188	TARGET_189	TARGET_190	TARGET_191	TARGET_192	TARGET_193	TARGET_194	TARGET_195	TARGET_196	TARGET_197	TARGET_198	TARGET_199	TARGET_200	TARGET_201	TARGET_202	TARGET_203	TARGET_204	TARGET_205	TARGET_206	TARGET_207	TARGET_208	TARGET_209	TARGET_210	TARGET_211	TARGET_212	TARGET_213	TARGET_214	TARGET_215	TARGET_216	TARGET_217	TARGET_218	TARGET_219	TARGET_220	TARGET_221	TARGET_222	TARGET_223	TARGET_224	TARGET_225	TARGET_226	TARGET_227	TARGET_228	TARGET_229	TARGET_230	TARGET_231	TARGET_232	TARGET_233	TARGET_234	TARGET_235	TARGET_236	TARGET_237	TARGET_238	TARGET_239	TARGET_240	TARGET_241	TARGET_242	TARGET_243	TARGET_244	TARGET_245	TARGET_246	TARGET_247	TARGET_248	TARGET_249	TARGET_250	TARGET_251	TARGET_252	TARGET_253	TARGET_254	TARGET_255	TARGET_256	TARGET_257	TARGET_258	TARGET_259	TARGET_260	TARGET_261	TARGET_262	TARGET_263	TARGET_264	TARGET_265	TARGET_266	TARGET_267	TARGET_268	TARGET_269	TARGET_270	TARGET_271	TARGET_272	TARGET_273	TARGET_274	TARGET_275	TARGET_276	TARGET_277	TARGET_278	TARGET_279	TARGET_280	TARGET_281	TARGET_282	TARGET_283	TARGET_284	TARGET_285	TARGET_286	TARGET_287	TARGET_288	TARGET_289	TARGET_290	TARGET_291	TARGET_292	TARGET_293	TARGET_294	TARGET_295	TARGET_296	TARGET_297	TARGET_298	TARGET_299	TARGET_300	TARGET_301	TARGET_302	TARGET_303	TARGET_304	TARGET_305	TARGET_306	TARGET_307	TARGET_308	TARGET_309	TARGET_310	TARGET_311	TARGET_312	TARGET_313	TARGET_314	TARGET_315	TARGET_316	TARGET_317	TARGET_318	TARGET_319	TARGET_320	TARGET_321	TARGET_322	TARGET_323	TARGET_324	TARGET_325	TARGET_326	TARGET_327	TARGET_328	TARGET_329	TARGET_330	TARGET_331	TARGET_332	TARGET_333	TARGET_334	TARGET_335	TARGET_336	TARGET_337	TARGET_338	TARGET_339	TARGET_340	TARGET_341	TARGET_342	TARGET_343	TARGET_344	TARGET_345	TARGET_346	TARGET_347	TARGET_348	TARGET_349	TARGET_350	TARGET_351	TARGET_352	TARGET_353	TARGET_354	TARGET_355	TARGET_356	TARGET_357	TARGET_358	TARGET_359	TARGET_360	TARGET_361	TARGET_362	TARGET_363	TARGET_364	TARGET_365	TARGET_366	TARGET_367	TARGET_368	TARGET_369	TARGET_370	TARGET_371	TARGET_372	TARGET_373	TARGET_374	TARGET_375	TARGET_376	TARGET_377	TARGET_378	TARGET_379	TARGET_380	TARGET_381	TARGET_382	TARGET_383	TARGET_384	TARGET_385	TARGET_386	TARGET_387	TARGET_388	TARGET_389	TARGET_390	TARGET_391	TARGET_392	TARGET_393	TARGET_394	TARGET_395	TARGET_396	TARGET_397	TARGET_398	TARGET_399	TARGET_400	TARGET_401	TARGET_402	TARGET_403	TARGET_404	TARGET_405	TARGET_406	TARGET_407	TARGET_408	TARGET_409	TARGET_410	TARGET_411	TARGET_412	TARGET_413	TARGET_414	TARGET_415	TARGET_416	TARGET_417	TARGET_418	TARGET_419	TARGET_420	TARGET_421	TARGET_422	TARGET_423	TARGET_424	TARGET_425	TARGET_426	TARGET_427	TARGET_428	TARGET_429	TARGET_430	TARGET_431	TARGET_432	TARGET_433	TARGET_434	TARGET_435	TARGET_436	TARGET_437	TARGET_438	TARGET_439	TARGET_440	TARGET_441	TARGET_442	TARGET_443	TARGET_444	TARGET_445	TARGET_446	TARGET_447	TARGET_448	TARGET_449	TARGET_450	TARGET_451	TARGET_452	TARGET_453	TARGET_454	TARGET_455	TARGET_456	TARGET_457	TARGET_458	TARGET_459	TARGET_460	TARGET_461	TARGET_462	TARGET_463	TARGET_464	TARGET_465	TARGET_466	TARGET_467	TARGET_468	TARGET_469	TARGET_470	TARGET_471	TARGET_472	TARGET_473	TARGET_474	TARGET_475	TARGET_476	TARGET_477	TARGET_478	TARGET_479	TARGET_480	TARGET_481	TARGET_482	TARGET_483	TARGET_484	TARGET_485	TARGET_486	TARGET_487	TARGET_488	TARGET_489	TARGET_490	TARGET_491	TARGET_492	TARGET_493	TARGET_494	TARGET_495	TARGET_496	TARGET_497	TARGET_498	TARGET_499	TARGET_500	TARGET_501	TARGET_502	TARGET_503	TARGET_504	TARGET_505	TARGET_506	TARGET_507	TARGET_508	TARGET_509	TARGET_510	TARGET_511	TARGET_512	TARGET_513	TARGET_514	TARGET_515	TARGET_516	TARGET_517	TARGET_518	TARGET_519	TARGET_520	TARGET_521	TARGET_522	TARGET_523	TARGET_524	TARGET_525	TARGET_526	TARGET_527	TARGET_528	TARGET_529	TARGET_530	TARGET_531	TARGET_532	TARGET_533	TARGET_534	TARGET_535	TARGET_536	TARGET_537	TARGET_538	TARGET_539	TARGET_540	TARGET_541	TARGET_542	TARGET_543	TARGET_544	TARGET_545	TARGET_546	TARGET_547	TARGET_548	TARGET_549	TARGET_550	TARGET_551	TARGET_552	TARGET_553	TARGET_554	TARGET_555	TARGET_556	TARGET_557	TARGET_558	TARGET_559	TARGET_560	TARGET_561	TARGET_562	TARGET_563	TARGET_564	TARGET_565	TARGET_566	TARGET_567	TARGET_568	TARGET_569	TARGET_570	TARGET_571	TARGET_572	TARGET_573	TARGET_574	TARGET_575	TARGET_576	TARGET_577	TARGET_578	TARGET_579	TARGET_580	TARGET_581	TARGET_582	TARGET_583	TARGET_584	TARGET_585	TARGET_586	TARGET_587	TARGET_588	TARGET_589	TARGET_590	TARGET_591	TARGET_592	TARGET_593	TARGET_594	TARGET_595	TARGET_596	TARGET_597	TARGET_598	TARGET_599	TARGET_600
ROW_0	-0.18685181091536915	0.072418468737032324	0.18914556571609387	0.14373273318411817	0.29263971490794971	-0.52030252765194362	-0.35496015377961165	0.12826671001124795	0.59517722596450584	-2.0356160412614854	0.81233090378002304	0.13732284952823937	-0.26842277904667317	1.1150650712546006	-0.99803847318691641	0.22681196194509665	-0.11951675277514724	-1.7283963949230272	-0.55570753928371819	-0.8090876515366312	-0.24353803443177768	1.3420310093046148	-0.57121600286001084	-0.54407552837755224	0.058116958247868646	1.8959155845618862	-1.0550531590403025	-0.41510189490688137	-0.29261200901595796	0.20949815564958418	-0.41995396775097793	0.037509005955217375	1.0128730335564722	-1.1852835243081297	-0.23729472571758994	-0.36945502659717899	0.30827295575884811	0.57176963450880236	0.46411159912307404	0.31870310540487329	1.1379299422433982	-1.2067785370745023	0.61162773979569429	-0.21194052125459381	1.3064109682790159	0.035669333442292693	-0.43809009686778316	-0.11106970586179553	0.22081853539276028	0.62946182097459191	0.82338714497198839	-0.52791247256164409	-0.48585559091794439	-0.30087692165754126	-1.2554981785730079	-1.2630320250167466	0.0042101723906216564	-0.76201800175808732	-0.17863274113793168	0.63451863658470553	-0.01536646057736101	-0.28963561953862832	-0.73845983198963727	1.615888170020632	-0.3275779187695998	-0.35891105306386101	-0.50360169815542899	0.6631064138337549	0.34260666290743352	-0.55321442502231455	-0.57879673573622581	0.85352255108844977	-0.6357897953986722	-0.20482011463280012	0.75524394228231528	-1.0458364402016647	0.5811932211420453	0.62939034204298883	-1.005873446956761	-0.9333791666359138	-0.51598054651593861	0.72952033281935269	1.7022381704756464	0.17814320236067388	-1.0997328677284117	0.20860016494553035	0.80199297439388939	0.18844870041693421	-0.098749437253643588	-0.040841674254190455	1.195876747281829	0.018312005059110383	-0.11922326385265733	0.66514594345619926	0.38922988922878293	0.51368470858332216	-0.61247124688722632	-0.67724094272606183	0.56495575318449798	0.70232520663174591	-0.80537630380647862	0.083157944015088761	-0.7572875663804014	0.50285659764540558	-0.27231616147511267	0.46905803635097393	0.24675644886264134	-0.49532663707913516	0.19639779316157532	-1.5431777918206544	-0.60712387227230058	-0.046308200633566964	-0.63302628405370875	-0.18473962807513891	0.088955040277006792	-0.99071033249615692	0.95060556797042328	-0.14983309792725524	-0.22527309554605007	-0.24221106461690231	0.014540392855631584	1.2455696403044336	0.095288017612164475	-0.27133248712100916	0.40772068900069952	-0.0065376005806081	0.20383538718190866	0.11796969670426823	0.39275262317267756	-0.57483137937758222	-0.016057396319186925	-0.56651475187239775	-1.2177846714795242	-0.5706644082421034	1.0900298501628154	-0.82184775013631561	-0.48007248307334816	-0.30486308374947069	0.28888252342073095	-0.38572247600231707	0.81183053057557342	-0.2926120712924889	0.30385768936964347	-0.0079807326768725519	0.068968052941155586	0.60256829960667857	0.29937245152729852	0.074480431320227317	-0.50753137765693368	-0.65685289345318609	0.44193924379852312	-0.32510031971356979	-1.0509528884362913	0.34644903782801384	-1.0951085518626791	0.46915973921106269	0.092940522519762397	0.47116162265745798	-0.57011741073101274	-0.19641948915801791	1.9007205060334857	-0.35987432534580566	0.7898385065107506	1.2220832097591579	-0.80674331783783004	-0.58556632731012004	1.342461167060099	0.038026640474641757	-0.89301320428233288	-0.87570176188898996	-0.011442632360990362	-0.82797478075342856	0.81345153659420288	-0.10686447489297603	0.64563042299707263	-0.67913170802459488	-0.22363071760418213	0.093345624156119494	-1.0565199168026536	0.83205453939986329	-0.23224643460417113	-0.90452342705253985	-0.47765741952127322	0.4206984475496473	0.67545549823144846	0.45427334389939839	0.51322589325314538	-0.66958568043545763	0.24766996814358014	-0.24497853118035445	-1.553384123943734	-0.28729736224447733	0.58616614403706269	-1.3391712545854779	1.1566340296827882	0.41765192936908691	-0.38573873487279092	-0.11401089062248242	-0.65211839112001457	-0.60229698506518503	-0.79138606427098956	0.5542385514942173	0.42470919236994625	0.11048743252621325	-1.5092715565932782	0.56502943219817059	-0.73145901655284096	-0.26213379074215992	-0.26966585634781698	0.7346662897924654	0.55849282853491145	-0.31292218516155718	1.2347368047222926	-0.082778561666167108	0.81007803581082372	1.4283744667521558	0.55187886337131709	0.51246777436162649	-0.22438849800898103	0.30391627153645795	0.50875351278200076	-0.620485313975082	0.0058420250582742394	-0.50061543056743085	0.095952732372405439	0.058430070063063125	0.14144859468402821	-0.0034563213335551085	-1.7871106231896896	0.10927692802288215	0.97761951173402684	-0.38162067620190976	0.42333683066603517	0.16068046405515765	-0.25825020514616248	-0.37231822944435283	-0.74019972738562823	1.1594494235209161	-0.58520623200524036	0.11426368506435668	0.59286732947707033	-0.6251410578069897	-0.89669299691634141	-0.71060548427880665	-0.48155108868545515	0.63170637674159569	0.0072095033155116827	0.83525932634969502	0.020329730264279575	1.0895976552089148	0.28187500294513423	-0.49317681458513929	-1.1786367720810815	0.36249288910476518	-0.23488586505535874	1.073538120452227	0.33073339860251605	-0.054917814664567861	-0.038751123178662285	0.29720185593408632	-1.0986366183921572	0.82861723295268597	0.34668125879224659	-0.19558361296162005	-0.059547243522596056	-1.4530731067513021	0.62099200422848555	-0.26729465044237527	0.30256874387308286	0.19661698802660524	0.73759977629905682	-0.0052710433053502273	0.44223285904064175	-0.57091759936097686	0.56227917056984555	-0.12743469564413923	1.1253044951056197	-0.55362266109306058	0.011159754535102512	-0.75176651462220323	-1.3090049747269608	-0.22757913881789787	0.39915040513200295	0.88211935523303797	-0.53366027285317008	-0.067689837476459666	-0.36980352970648528	1.4050845705763062	0.44663296633556882	1.4135157735767681	0.015222112942327368	2.1230555869703074	-0.60134121025044274	0.26802490519581862	0.038287817218290623	-0.24358517538242452	0.76758558077177141	1.0630766363336124	-1.2354085659864094	0.085933046836934687	-0.44197282874565991	0.12959398573317293	-0.6015860050420988	0.47830151523149211	0.99486619521297504	0.75173461580030909	-0.8429107562958148	-1.0298363758546463	1.2701206159617027	-0.096964170555136758	-0.49752535053795172	-0.57940432153600763	-0.4982876760657069	-0.83974226804508623	1.0882577259682404	0.53919669645318935	0.71153889922627478	-0.44226024741194886	-0.82707548129034314	0.055265765336862442	0.063805399761627968	-0.30770156675144128	0.98004057634926578	-0.51111813896161151	-0.47304256150966878	0.55936312564110369	0.26192325433094699	-0.13443329345790286	0.18141146646450396	-0.54426023906027055	0.90359970682105484	-0.98488031773782303	-1.4295850232944001	1.5939375444965205	0.4324037752957326	-0.83327712788202812	-0.36147046581327547	0.90112633164903844	-1.7613677942961443	1.4940918576248303	-0.22293254943015364	-0.36618698523392113	0.22538249829041615	0.52545115833087686	0.63781531685402282	-0.45179698303363197	0.12248235995294281	0.73340834885390604	-0.50555673215869634	0.88501615527740851	1.2270099796538574	0.89121142181333834	0.29001467367805034	0.65583143375081887	-0.24969841199286993	-1.607522455081541	-0.41454413448797556	-0.2107263148164987	1.6451164802678078	-0.28226027464444542	-0.033676887881109542	-0.92405495765468293	0.69277837569691891	0.88515508069906235	0.76001862633046546	0.21203610887395549	0.72719872740121916	0.94329414598066852	-0.78402829695841381	-0.085652599724878972	0.9004333832067497	-0.652374552200365	0.56187785548562419	0.84927853345511173	0.28927779188741953	1.039065316618865	0.70675262977346698	0.60305828653038795	-0.3867758066671742	0.044966988289660829	0.72450263055481512	1.1758044138396841	-0.19089948659710268	-0.72285048848950761	0.9993144040666605	0.11020775306128437	1.9214646651663838	0.2159041408128089	0.34541134167175347	0.3590887383400187	-0.74635635214490592	0.41608313409854786	0.30454446245523309	-0.32254301278164865	-0.1685848039539862	0.075531174331644024	-0.28263417857736506	-0.19979883130194534	1.2530546901013975	0.93060202632601929	-0.62909544370475623	-1.8623378680961897	0.62242574312633003	0.43763861684270244	0.80531121848597176	0.30574548777496297	-0.52240902635816733	0.49719348651910272	0.10916759405857888	-0.1108793973136851	-0.071098714929720308	-0.007402462890720162	-0.19894207180912404	-0.7946864767539763	-0.52301612254981711	-0.15961138323665047	-0.13551117825632508	0.86244320044888501	-0.020072163971277399	0.0060629695607459667	-0.21170109439579654	0.87510894004125994	1.3323579662499012	-0.67221031798041364	0.011059572375775092	-0.04988613377125279	-1.5557336240699491	-0.63097479622585706	0.3844420196036028	1.2476010794403578	0.67664521792747956	0.12267849179760563	-1.944748873310848	-1.1320898425240371	0.3392771369123363	0.31142868927302991	0.16881524113352339	-0.42238821617168604	-0.35612981742851596	0.20243402620691517	0.14726751947840389	0.12543779333761992	0.57910688307514846	1.4120889731606914	0.056900320481039185	0.40228221445259327	0.56194080785891742	0.076884701965584556	-0.31376315434882412	1.2475014341329953	0.1085282935729056	-0.3583859211544968	0.096331196586496248	0.0305020844607359	-2.0880492273156745	0.22291097008818142	-1.1916549940267758	-0.16956495803224966	-0.96973601394113185	-1.4245481318440458	-0.3121122252755163	-0.60744382814902453	-0.078927951669879093	0.040971125356655647	0.88783218339091619	-0.37070347525274339	0.69791113053203124	-0.39084973124558575	0.003557035716392615	-0.29531258795402904	-0.18135257342391042	-0.16220207313675822	-0.025664650977492542	0.31363842979716444	-0.44290481026139233	0.44256238495946343	0.50476779788839377	1.0457759030548912	0.4784161618933635	-0.63472215011749344	-0.51572670053281644	0.18879587184667601	0.62038776280623031	0.51029390162190946	-0.031903315274726597	0.33180067494980831	0.31778681574966533	-1.3084965286996488	-0.060345100986958389	-0.1883981167041647	-0.20791943403821489	-0.10957719301908186	1.1013530392564439	0.14658844845453545	0.15568685191128157	0.87806952740952526	-0.46419122889597214	0.097266356761965572	-0.59464040645588412	-0.85835549856855353	-0.462095954112482	-0.33895782856008949	1.0993743355582475	0.27392513460531831	0.27352683089024826	0.083869011986733077	0.32646791019673133	-0.44899234940331306	-2.1185370270314587	0.86134658279023457	0.73609994043787363	-0.16868814966630624	-0.43562441081273579	0.13247408615284081	-1.2145564205010382	0.051539752098898932	0.14091562510184669	0.22941608487764953	-0.17754102061008492	0.32796126429818218	-0.47967572133514086	-0.19978939028526463	-0.56932592164014895	-0.68275173110327847	-0.66467162414376391	0.37218242893121584	0.1430911553026811	1.0952393652520023	0.31205122853347123	0.1097656781340698	0.13809510536066885	0.39962144522862597	-0.60822069660518863	-0.29852859661812603	0.0066739984169512283	0.67499488099668092	-0.056319161284765051	1.2051070125976993	-0.0034531163089412844	-0.48533898824551636	-1.2655067247175191	-1.2367004125611636	-0.25088067106619516	-0.69599692339681107	0.63324977183500342	0.62807916810283182	0.79746245845726971	-0.36411442715076781	-0.72394656751337472	0.50997019435842039	-0.27516288497505326	1.4284177927883408	1.2733765702631932	-0.41857200140640344	-1.1897874482340305	0.3014680757176692	-1.269637961580645	0.26743869726042724	0.65519613028316692	-0.30092049416648065	-1.1375894455908375	-1.1104290372863401	0.50410658518422868	1.4701697358363341	-0.55665574062159096	-1.0272469753395519	-1.0228544753056181	-0.042111197703092788	-1.4941054408761478	0.094078194194746251	-0.5986724477112314	-0.04722589666255754	-1.258211854812632	-1.010153688790181	1.8735830317941267	1.217845517462375	-0.43945149324718646	-0.61515387146257172	0.35329332719930095	-0.36638097873370379	0.28970255189584326	-0.25634984862034788	-0.016982550391317748	0.85537243828715948	1.0377441549408162	-0.3899143355272916	2.4800649057357558	0.50040325030300359	-0.57467453491854414	-1.3957362876259589	1.1192393432462562	0.19413174103252809	1.0659410810505878	1.6993937704284305	0.81160217625102116	1.0485280744089227	0.36364099099330421	-0.20777941573398401	1.7721962985798865	0.29052864504893161	-1.3986403452683294
